digraph Tree {
node [shape=box, fontname="helvetica"] ;
edge [fontname="helvetica"] ;
0 [label="X[0] <= -0.075\nsquared_error = 0.098\nsamples = 101\nvalue = 0.006"] ;
1 [label="squared_error = 0.023\nsamples = 43\nvalue = -0.303"] ;
0 -> 1 [labeldistance=2.5, labelangle=45, headlabel="True"] ;
2 [label="squared_error = 0.03\nsamples = 58\nvalue = 0.234"] ;
0 -> 2 [labeldistance=2.5, labelangle=-45, headlabel="False"] ;
}